digraph Tree {
node [shape=box, fontname="helvetica"] ;
edge [fontname="helvetica"] ;
0 [label="x[2] <= 0.5\ngini = 0.469\nsamples = 712\nvalue = [444, 268]\nclass = setosa"] ;
1 [label="x[0] <= 2.5\ngini = 0.386\nsamples = 245\nvalue = [64, 181]\nclass = versicolor"] ;
0 -> 1 [labeldistance=2.5, labelangle=45, headlabel="True"] ;
2 [label="x[1] <= 2.5\ngini = 0.074\nsamples = 130\nvalue = [5, 125]\nclass = versicolor"] ;
1 -> 2 ;
3 [label="x[0] <= 1.5\ngini = 0.5\nsamples = 2\nvalue = [1, 1]\nclass = setosa"] ;
2 -> 3 ;
4 [label="gini = 0.0\nsamples = 1\nvalue = [1, 0]\nclass = setosa"] ;
3 -> 4 ;
5 [label="gini = 0.0\nsamples = 1\nvalue = [0, 1]\nclass = versicolor"] ;
3 -> 5 ;
6 [label="x[1] <= 27.5\ngini = 0.061\nsamples = 128\nvalue = [4, 124]\nclass = versicolor"] ;
2 -> 6 ;
7 [label="x[1] <= 24.5\ngini = 0.12\nsamples = 47\nvalue = [3.0, 44.0]\nclass = versicolor"] ;
6 -> 7 ;
8 [label="x[1] <= 23.5\ngini = 0.048\nsamples = 41\nvalue = [1, 40]\nclass = versicolor"] ;
7 -> 8 ;
9 [label="gini = 0.0\nsamples = 29\nvalue = [0, 29]\nclass = versicolor"] ;
8 -> 9 ;
10 [label="x[0] <= 1.5\ngini = 0.153\nsamples = 12\nvalue = [1, 11]\nclass = versicolor"] ;
8 -> 10 ;
11 [label="gini = 0.0\nsamples = 5\nvalue = [0, 5]\nclass = versicolor"] ;
10 -> 11 ;
12 [label="x[3] <= 0.5\ngini = 0.245\nsamples = 7\nvalue = [1, 6]\nclass = versicolor"] ;
10 -> 12 ;
13 [label="gini = 0.444\nsamples = 3\nvalue = [1, 2]\nclass = versicolor"] ;
12 -> 13 ;
14 [label="gini = 0.0\nsamples = 4\nvalue = [0, 4]\nclass = versicolor"] ;
12 -> 14 ;
15 [label="x[0] <= 1.5\ngini = 0.444\nsamples = 6\nvalue = [2, 4]\nclass = versicolor"] ;
7 -> 15 ;
16 [label="gini = 0.0\nsamples = 1\nvalue = [1, 0]\nclass = setosa"] ;
15 -> 16 ;
17 [label="x[3] <= 0.5\ngini = 0.32\nsamples = 5\nvalue = [1, 4]\nclass = versicolor"] ;
15 -> 17 ;
18 [label="gini = 0.444\nsamples = 3\nvalue = [1, 2]\nclass = versicolor"] ;
17 -> 18 ;
19 [label="gini = 0.0\nsamples = 2\nvalue = [0, 2]\nclass = versicolor"] ;
17 -> 19 ;
20 [label="x[1] <= 49.5\ngini = 0.024\nsamples = 81\nvalue = [1, 80]\nclass = versicolor"] ;
6 -> 20 ;
21 [label="gini = 0.0\nsamples = 65\nvalue = [0, 65]\nclass = versicolor"] ;
20 -> 21 ;
22 [label="x[1] <= 50.5\ngini = 0.117\nsamples = 16\nvalue = [1, 15]\nclass = versicolor"] ;
20 -> 22 ;
23 [label="x[0] <= 1.5\ngini = 0.375\nsamples = 4\nvalue = [1, 3]\nclass = versicolor"] ;
22 -> 23 ;
24 [label="gini = 0.0\nsamples = 1\nvalue = [1, 0]\nclass = setosa"] ;
23 -> 24 ;
25 [label="gini = 0.0\nsamples = 3\nvalue = [0, 3]\nclass = versicolor"] ;
23 -> 25 ;
26 [label="gini = 0.0\nsamples = 12\nvalue = [0, 12]\nclass = versicolor"] ;
22 -> 26 ;
27 [label="x[1] <= 36.5\ngini = 0.5\nsamples = 115\nvalue = [59.0, 56.0]\nclass = setosa"] ;
1 -> 27 ;
28 [label="x[1] <= 1.5\ngini = 0.499\nsamples = 106\nvalue = [51, 55]\nclass = versicolor"] ;
27 -> 28 ;
29 [label="gini = 0.0\nsamples = 4\nvalue = [0, 4]\nclass = versicolor"] ;
28 -> 29 ;
30 [label="x[1] <= 21.5\ngini = 0.5\nsamples = 102\nvalue = [51, 51]\nclass = setosa"] ;
28 -> 30 ;
31 [label="x[1] <= 19.0\ngini = 0.461\nsamples = 36\nvalue = [23, 13]\nclass = setosa"] ;
30 -> 31 ;
32 [label="x[1] <= 14.75\ngini = 0.48\nsamples = 30\nvalue = [18, 12]\nclass = setosa"] ;
31 -> 32 ;
33 [label="x[1] <= 5.5\ngini = 0.415\nsamples = 17\nvalue = [12, 5]\nclass = setosa"] ;
32 -> 33 ;
34 [label="x[1] <= 3.5\ngini = 0.5\nsamples = 8\nvalue = [4, 4]\nclass = setosa"] ;
33 -> 34 ;
35 [label="x[3] <= 1.5\ngini = 0.32\nsamples = 5\nvalue = [4, 1]\nclass = setosa"] ;
34 -> 35 ;
36 [label="x[1] <= 2.5\ngini = 0.444\nsamples = 3\nvalue = [2, 1]\nclass = setosa"] ;
35 -> 36 ;
37 [label="gini = 0.5\nsamples = 2\nvalue = [1, 1]\nclass = setosa"] ;
36 -> 37 ;
38 [label="gini = 0.0\nsamples = 1\nvalue = [1, 0]\nclass = setosa"] ;
36 -> 38 ;
39 [label="gini = 0.0\nsamples = 2\nvalue = [2, 0]\nclass = setosa"] ;
35 -> 39 ;
40 [label="gini = 0.0\nsamples = 3\nvalue = [0, 3]\nclass = versicolor"] ;
34 -> 40 ;
41 [label="x[3] <= 0.5\ngini = 0.198\nsamples = 9\nvalue = [8, 1]\nclass = setosa"] ;
33 -> 41 ;
42 [label="x[1] <= 13.5\ngini = 0.444\nsamples = 3\nvalue = [2, 1]\nclass = setosa"] ;
41 -> 42 ;
43 [label="gini = 0.0\nsamples = 1\nvalue = [0, 1]\nclass = versicolor"] ;
42 -> 43 ;
44 [label="gini = 0.0\nsamples = 2\nvalue = [2, 0]\nclass = setosa"] ;
42 -> 44 ;
45 [label="gini = 0.0\nsamples = 6\nvalue = [6, 0]\nclass = setosa"] ;
41 -> 45 ;
46 [label="x[1] <= 15.5\ngini = 0.497\nsamples = 13\nvalue = [6, 7]\nclass = versicolor"] ;
32 -> 46 ;
47 [label="gini = 0.0\nsamples = 2\nvalue = [0, 2]\nclass = versicolor"] ;
46 -> 47 ;
48 [label="x[1] <= 17.5\ngini = 0.496\nsamples = 11\nvalue = [6, 5]\nclass = setosa"] ;
46 -> 48 ;
49 [label="x[3] <= 1.0\ngini = 0.5\nsamples = 4\nvalue = [2, 2]\nclass = setosa"] ;
48 -> 49 ;
50 [label="x[1] <= 16.5\ngini = 0.5\nsamples = 2\nvalue = [1, 1]\nclass = setosa"] ;
49 -> 50 ;
51 [label="gini = 0.0\nsamples = 1\nvalue = [0, 1]\nclass = versicolor"] ;
50 -> 51 ;
52 [label="gini = 0.0\nsamples = 1\nvalue = [1, 0]\nclass = setosa"] ;
50 -> 52 ;
53 [label="x[1] <= 16.5\ngini = 0.5\nsamples = 2\nvalue = [1, 1]\nclass = setosa"] ;
49 -> 53 ;
54 [label="gini = 0.0\nsamples = 1\nvalue = [1, 0]\nclass = setosa"] ;
53 -> 54 ;
55 [label="gini = 0.0\nsamples = 1\nvalue = [0, 1]\nclass = versicolor"] ;
53 -> 55 ;
56 [label="x[3] <= 0.5\ngini = 0.49\nsamples = 7\nvalue = [4, 3]\nclass = setosa"] ;
48 -> 56 ;
57 [label="gini = 0.48\nsamples = 5\nvalue = [3, 2]\nclass = setosa"] ;
56 -> 57 ;
58 [label="gini = 0.5\nsamples = 2\nvalue = [1, 1]\nclass = setosa"] ;
56 -> 58 ;
59 [label="x[1] <= 20.5\ngini = 0.278\nsamples = 6\nvalue = [5, 1]\nclass = setosa"] ;
31 -> 59 ;
60 [label="gini = 0.0\nsamples = 2\nvalue = [2, 0]\nclass = setosa"] ;
59 -> 60 ;
61 [label="x[3] <= 1.0\ngini = 0.375\nsamples = 4\nvalue = [3, 1]\nclass = setosa"] ;
59 -> 61 ;
62 [label="gini = 0.444\nsamples = 3\nvalue = [2, 1]\nclass = setosa"] ;
61 -> 62 ;
63 [label="gini = 0.0\nsamples = 1\nvalue = [1, 0]\nclass = setosa"] ;
61 -> 63 ;
64 [label="x[3] <= 0.5\ngini = 0.489\nsamples = 66\nvalue = [28, 38]\nclass = versicolor"] ;
30 -> 64 ;
65 [label="x[1] <= 25.5\ngini = 0.458\nsamples = 45\nvalue = [16.0, 29.0]\nclass = versicolor"] ;
64 -> 65 ;
66 [label="x[1] <= 24.5\ngini = 0.496\nsamples = 11\nvalue = [6, 5]\nclass = setosa"] ;
65 -> 66 ;
67 [label="x[1] <= 22.5\ngini = 0.494\nsamples = 9\nvalue = [4, 5]\nclass = versicolor"] ;
66 -> 67 ;
68 [label="gini = 0.48\nsamples = 5\nvalue = [2, 3]\nclass = versicolor"] ;
67 -> 68 ;
69 [label="x[1] <= 23.5\ngini = 0.5\nsamples = 4\nvalue = [2, 2]\nclass = setosa"] ;
67 -> 69 ;
70 [label="gini = 0.5\nsamples = 2\nvalue = [1, 1]\nclass = setosa"] ;
69 -> 70 ;
71 [label="gini = 0.5\nsamples = 2\nvalue = [1, 1]\nclass = setosa"] ;
69 -> 71 ;
72 [label="gini = 0.0\nsamples = 2\nvalue = [2, 0]\nclass = setosa"] ;
66 -> 72 ;
73 [label="x[1] <= 32.0\ngini = 0.415\nsamples = 34\nvalue = [10, 24]\nclass = versicolor"] ;
65 -> 73 ;
74 [label="x[1] <= 29.85\ngini = 0.43\nsamples = 32\nvalue = [10, 22]\nclass = versicolor"] ;
73 -> 74 ;
75 [label="x[1] <= 28.85\ngini = 0.408\nsamples = 28\nvalue = [8, 20]\nclass = versicolor"] ;
74 -> 75 ;
76 [label="x[1] <= 27.5\ngini = 0.48\nsamples = 5\nvalue = [2, 3]\nclass = versicolor"] ;
75 -> 76 ;
77 [label="x[1] <= 26.5\ngini = 0.375\nsamples = 4\nvalue = [1, 3]\nclass = versicolor"] ;
76 -> 77 ;
78 [label="gini = 0.444\nsamples = 3\nvalue = [1, 2]\nclass = versicolor"] ;
77 -> 78 ;
79 [label="gini = 0.0\nsamples = 1\nvalue = [0, 1]\nclass = versicolor"] ;
77 -> 79 ;
80 [label="gini = 0.0\nsamples = 1\nvalue = [1, 0]\nclass = setosa"] ;
76 -> 80 ;
81 [label="gini = 0.386\nsamples = 23\nvalue = [6, 17]\nclass = versicolor"] ;
75 -> 81 ;
82 [label="x[1] <= 30.5\ngini = 0.5\nsamples = 4\nvalue = [2, 2]\nclass = setosa"] ;
74 -> 82 ;
83 [label="gini = 0.5\nsamples = 2\nvalue = [1, 1]\nclass = setosa"] ;
82 -> 83 ;
84 [label="gini = 0.5\nsamples = 2\nvalue = [1, 1]\nclass = setosa"] ;
82 -> 84 ;
85 [label="gini = 0.0\nsamples = 2\nvalue = [0, 2]\nclass = versicolor"] ;
73 -> 85 ;
86 [label="x[1] <= 27.5\ngini = 0.49\nsamples = 21\nvalue = [12, 9]\nclass = setosa"] ;
64 -> 86 ;
87 [label="gini = 0.0\nsamples = 4\nvalue = [0, 4]\nclass = versicolor"] ;
86 -> 87 ;
88 [label="x[1] <= 30.5\ngini = 0.415\nsamples = 17\nvalue = [12, 5]\nclass = setosa"] ;
86 -> 88 ;
89 [label="x[3] <= 3.0\ngini = 0.32\nsamples = 15\nvalue = [12, 3]\nclass = setosa"] ;
88 -> 89 ;
90 [label="x[1] <= 29.35\ngini = 0.337\nsamples = 14\nvalue = [11, 3]\nclass = setosa"] ;
89 -> 90 ;
91 [label="x[3] <= 1.5\ngini = 0.444\nsamples = 3\nvalue = [2, 1]\nclass = setosa"] ;
90 -> 91 ;
92 [label="gini = 0.0\nsamples = 2\nvalue = [2, 0]\nclass = setosa"] ;
91 -> 92 ;
93 [label="gini = 0.0\nsamples = 1\nvalue = [0, 1]\nclass = versicolor"] ;
91 -> 93 ;
94 [label="x[1] <= 29.85\ngini = 0.298\nsamples = 11\nvalue = [9, 2]\nclass = setosa"] ;
90 -> 94 ;
95 [label="x[3] <= 1.5\ngini = 0.32\nsamples = 10\nvalue = [8, 2]\nclass = setosa"] ;
94 -> 95 ;
96 [label="gini = 0.444\nsamples = 3\nvalue = [2, 1]\nclass = setosa"] ;
95 -> 96 ;
97 [label="gini = 0.245\nsamples = 7\nvalue = [6, 1]\nclass = setosa"] ;
95 -> 97 ;
98 [label="gini = 0.0\nsamples = 1\nvalue = [1, 0]\nclass = setosa"] ;
94 -> 98 ;
99 [label="gini = 0.0\nsamples = 1\nvalue = [1, 0]\nclass = setosa"] ;
89 -> 99 ;
100 [label="gini = 0.0\nsamples = 2\nvalue = [0, 2]\nclass = versicolor"] ;
88 -> 100 ;
101 [label="x[1] <= 55.0\ngini = 0.198\nsamples = 9\nvalue = [8, 1]\nclass = setosa"] ;
27 -> 101 ;
102 [label="gini = 0.0\nsamples = 8\nvalue = [8, 0]\nclass = setosa"] ;
101 -> 102 ;
103 [label="gini = 0.0\nsamples = 1\nvalue = [0, 1]\nclass = versicolor"] ;
101 -> 103 ;
104 [label="x[1] <= 6.5\ngini = 0.303\nsamples = 467\nvalue = [380, 87]\nclass = setosa"] ;
0 -> 104 [labeldistance=2.5, labelangle=-45, headlabel="False"] ;
105 [label="x[0] <= 2.5\ngini = 0.434\nsamples = 22\nvalue = [7.0, 15.0]\nclass = versicolor"] ;
104 -> 105 ;
106 [label="gini = 0.0\nsamples = 9\nvalue = [0, 9]\nclass = versicolor"] ;
105 -> 106 ;
107 [label="x[1] <= 2.5\ngini = 0.497\nsamples = 13\nvalue = [7, 6]\nclass = setosa"] ;
105 -> 107 ;
108 [label="x[1] <= 0.71\ngini = 0.408\nsamples = 7\nvalue = [5, 2]\nclass = setosa"] ;
107 -> 108 ;
109 [label="gini = 0.0\nsamples = 1\nvalue = [0, 1]\nclass = versicolor"] ;
108 -> 109 ;
110 [label="x[3] <= 1.5\ngini = 0.278\nsamples = 6\nvalue = [5, 1]\nclass = setosa"] ;
108 -> 110 ;
111 [label="gini = 0.0\nsamples = 4\nvalue = [4, 0]\nclass = setosa"] ;
110 -> 111 ;
112 [label="gini = 0.5\nsamples = 2\nvalue = [1, 1]\nclass = setosa"] ;
110 -> 112 ;
113 [label="x[1] <= 3.5\ngini = 0.444\nsamples = 6\nvalue = [2, 4]\nclass = versicolor"] ;
107 -> 113 ;
114 [label="gini = 0.0\nsamples = 2\nvalue = [0, 2]\nclass = versicolor"] ;
113 -> 114 ;
115 [label="x[1] <= 5.0\ngini = 0.5\nsamples = 4\nvalue = [2, 2]\nclass = setosa"] ;
113 -> 115 ;
116 [label="x[3] <= 1.5\ngini = 0.444\nsamples = 3\nvalue = [2, 1]\nclass = setosa"] ;
115 -> 116 ;
117 [label="gini = 0.5\nsamples = 2\nvalue = [1, 1]\nclass = setosa"] ;
116 -> 117 ;
118 [label="gini = 0.0\nsamples = 1\nvalue = [1, 0]\nclass = setosa"] ;
116 -> 118 ;
119 [label="gini = 0.0\nsamples = 1\nvalue = [0, 1]\nclass = versicolor"] ;
115 -> 119 ;
120 [label="x[0] <= 1.5\ngini = 0.271\nsamples = 445\nvalue = [373, 72]\nclass = setosa"] ;
104 -> 120 ;
121 [label="x[1] <= 17.5\ngini = 0.442\nsamples = 91\nvalue = [61.0, 30.0]\nclass = setosa"] ;
120 -> 121 ;
122 [label="gini = 0.0\nsamples = 1\nvalue = [0, 1]\nclass = versicolor"] ;
121 -> 122 ;
123 [label="x[1] <= 24.5\ngini = 0.437\nsamples = 90\nvalue = [61.0, 29.0]\nclass = setosa"] ;
121 -> 123 ;
124 [label="gini = 0.0\nsamples = 6\nvalue = [6, 0]\nclass = setosa"] ;
123 -> 124 ;
125 [label="x[1] <= 27.5\ngini = 0.452\nsamples = 84\nvalue = [55, 29]\nclass = setosa"] ;
123 -> 125 ;
126 [label="x[3] <= 1.0\ngini = 0.278\nsamples = 6\nvalue = [1, 5]\nclass = versicolor"] ;
125 -> 126 ;
127 [label="gini = 0.0\nsamples = 5\nvalue = [0, 5]\nclass = versicolor"] ;
126 -> 127 ;
128 [label="gini = 0.0\nsamples = 1\nvalue = [1, 0]\nclass = setosa"] ;
126 -> 128 ;
129 [label="x[1] <= 75.0\ngini = 0.426\nsamples = 78\nvalue = [54, 24]\nclass = setosa"] ;
125 -> 129 ;
130 [label="x[1] <= 60.5\ngini = 0.419\nsamples = 77\nvalue = [54, 23]\nclass = setosa"] ;
129 -> 130 ;
131 [label="x[3] <= 1.5\ngini = 0.438\nsamples = 71\nvalue = [48, 23]\nclass = setosa"] ;
130 -> 131 ;
132 [label="x[1] <= 30.5\ngini = 0.431\nsamples = 70\nvalue = [48, 22]\nclass = setosa"] ;
131 -> 132 ;
133 [label="x[1] <= 29.85\ngini = 0.34\nsamples = 23\nvalue = [18, 5]\nclass = setosa"] ;
132 -> 133 ;
134 [label="x[1] <= 28.5\ngini = 0.351\nsamples = 22\nvalue = [17, 5]\nclass = setosa"] ;
133 -> 134 ;
135 [label="gini = 0.444\nsamples = 3\nvalue = [2, 1]\nclass = setosa"] ;
134 -> 135 ;
136 [label="x[1] <= 29.35\ngini = 0.332\nsamples = 19\nvalue = [15, 4]\nclass = setosa"] ;
134 -> 136 ;
137 [label="gini = 0.0\nsamples = 2\nvalue = [2, 0]\nclass = setosa"] ;
136 -> 137 ;
138 [label="gini = 0.36\nsamples = 17\nvalue = [13, 4]\nclass = setosa"] ;
136 -> 138 ;
139 [label="gini = 0.0\nsamples = 1\nvalue = [1, 0]\nclass = setosa"] ;
133 -> 139 ;
140 [label="x[1] <= 38.5\ngini = 0.462\nsamples = 47\nvalue = [30, 17]\nclass = setosa"] ;
132 -> 140 ;
141 [label="x[1] <= 31.5\ngini = 0.5\nsamples = 14\nvalue = [7, 7]\nclass = setosa"] ;
140 -> 141 ;
142 [label="gini = 0.444\nsamples = 3\nvalue = [2, 1]\nclass = setosa"] ;
141 -> 142 ;
143 [label="x[1] <= 35.5\ngini = 0.496\nsamples = 11\nvalue = [5, 6]\nclass = versicolor"] ;
141 -> 143 ;
144 [label="x[1] <= 34.0\ngini = 0.375\nsamples = 4\nvalue = [1, 3]\nclass = versicolor"] ;
143 -> 144 ;
145 [label="x[1] <= 32.5\ngini = 0.5\nsamples = 2\nvalue = [1, 1]\nclass = setosa"] ;
144 -> 145 ;
146 [label="gini = 0.0\nsamples = 1\nvalue = [0, 1]\nclass = versicolor"] ;
145 -> 146 ;
147 [label="gini = 0.0\nsamples = 1\nvalue = [1, 0]\nclass = setosa"] ;
145 -> 147 ;
148 [label="gini = 0.0\nsamples = 2\nvalue = [0, 2]\nclass = versicolor"] ;
144 -> 148 ;
149 [label="x[3] <= 0.5\ngini = 0.49\nsamples = 7\nvalue = [4, 3]\nclass = setosa"] ;
143 -> 149 ;
150 [label="x[1] <= 37.0\ngini = 0.444\nsamples = 3\nvalue = [2, 1]\nclass = setosa"] ;
149 -> 150 ;
151 [label="gini = 0.0\nsamples = 2\nvalue = [2, 0]\nclass = setosa"] ;
150 -> 151 ;
152 [label="gini = 0.0\nsamples = 1\nvalue = [0, 1]\nclass = versicolor"] ;
150 -> 152 ;
153 [label="x[1] <= 36.5\ngini = 0.5\nsamples = 4\nvalue = [2, 2]\nclass = setosa"] ;
149 -> 153 ;
154 [label="gini = 0.0\nsamples = 1\nvalue = [0, 1]\nclass = versicolor"] ;
153 -> 154 ;
155 [label="x[1] <= 37.5\ngini = 0.444\nsamples = 3\nvalue = [2, 1]\nclass = setosa"] ;
153 -> 155 ;
156 [label="gini = 0.5\nsamples = 2\nvalue = [1, 1]\nclass = setosa"] ;
155 -> 156 ;
157 [label="gini = 0.0\nsamples = 1\nvalue = [1, 0]\nclass = setosa"] ;
155 -> 157 ;
158 [label="x[1] <= 47.5\ngini = 0.422\nsamples = 33\nvalue = [23, 10]\nclass = setosa"] ;
140 -> 158 ;
159 [label="x[1] <= 45.25\ngini = 0.245\nsamples = 14\nvalue = [12, 2]\nclass = setosa"] ;
158 -> 159 ;
160 [label="x[1] <= 41.0\ngini = 0.346\nsamples = 9\nvalue = [7, 2]\nclass = setosa"] ;
159 -> 160 ;
161 [label="gini = 0.0\nsamples = 2\nvalue = [2, 0]\nclass = setosa"] ;
160 -> 161 ;
162 [label="x[1] <= 43.0\ngini = 0.408\nsamples = 7\nvalue = [5, 2]\nclass = setosa"] ;
160 -> 162 ;
163 [label="gini = 0.5\nsamples = 2\nvalue = [1, 1]\nclass = setosa"] ;
162 -> 163 ;
164 [label="x[1] <= 44.5\ngini = 0.32\nsamples = 5\nvalue = [4, 1]\nclass = setosa"] ;
162 -> 164 ;
165 [label="gini = 0.0\nsamples = 1\nvalue = [1, 0]\nclass = setosa"] ;
164 -> 165 ;
166 [label="gini = 0.375\nsamples = 4\nvalue = [3, 1]\nclass = setosa"] ;
164 -> 166 ;
167 [label="gini = 0.0\nsamples = 5\nvalue = [5, 0]\nclass = setosa"] ;
159 -> 167 ;
168 [label="x[1] <= 48.5\ngini = 0.488\nsamples = 19\nvalue = [11, 8]\nclass = setosa"] ;
158 -> 168 ;
169 [label="gini = 0.0\nsamples = 2\nvalue = [0, 2]\nclass = versicolor"] ;
168 -> 169 ;
170 [label="x[3] <= 0.5\ngini = 0.457\nsamples = 17\nvalue = [11, 6]\nclass = setosa"] ;
168 -> 170 ;
171 [label="x[1] <= 53.0\ngini = 0.486\nsamples = 12\nvalue = [7, 5]\nclass = setosa"] ;
170 -> 171 ;
172 [label="x[1] <= 50.5\ngini = 0.444\nsamples = 6\nvalue = [2, 4]\nclass = versicolor"] ;
171 -> 172 ;
173 [label="x[1] <= 49.5\ngini = 0.5\nsamples = 4\nvalue = [2, 2]\nclass = setosa"] ;
172 -> 173 ;
174 [label="gini = 0.0\nsamples = 1\nvalue = [0, 1]\nclass = versicolor"] ;
173 -> 174 ;
175 [label="gini = 0.444\nsamples = 3\nvalue = [2, 1]\nclass = setosa"] ;
173 -> 175 ;
176 [label="gini = 0.0\nsamples = 2\nvalue = [0, 2]\nclass = versicolor"] ;
172 -> 176 ;
177 [label="x[1] <= 55.5\ngini = 0.278\nsamples = 6\nvalue = [5, 1]\nclass = setosa"] ;
171 -> 177 ;
178 [label="gini = 0.0\nsamples = 2\nvalue = [2, 0]\nclass = setosa"] ;
177 -> 178 ;
179 [label="x[1] <= 57.0\ngini = 0.375\nsamples = 4\nvalue = [3, 1]\nclass = setosa"] ;
177 -> 179 ;
180 [label="gini = 0.5\nsamples = 2\nvalue = [1, 1]\nclass = setosa"] ;
179 -> 180 ;
181 [label="gini = 0.0\nsamples = 2\nvalue = [2, 0]\nclass = setosa"] ;
179 -> 181 ;
182 [label="x[1] <= 57.0\ngini = 0.32\nsamples = 5\nvalue = [4, 1]\nclass = setosa"] ;
170 -> 182 ;
183 [label="gini = 0.0\nsamples = 4\nvalue = [4, 0]\nclass = setosa"] ;
182 -> 183 ;
184 [label="gini = 0.0\nsamples = 1\nvalue = [0, 1]\nclass = versicolor"] ;
182 -> 184 ;
185 [label="gini = 0.0\nsamples = 1\nvalue = [0, 1]\nclass = versicolor"] ;
131 -> 185 ;
186 [label="gini = 0.0\nsamples = 6\nvalue = [6, 0]\nclass = setosa"] ;
130 -> 186 ;
187 [label="gini = 0.0\nsamples = 1\nvalue = [0, 1]\nclass = versicolor"] ;
129 -> 187 ;
188 [label="x[1] <= 32.25\ngini = 0.209\nsamples = 354\nvalue = [312, 42]\nclass = setosa"] ;
120 -> 188 ;
189 [label="x[1] <= 31.5\ngini = 0.241\nsamples = 264\nvalue = [227, 37]\nclass = setosa"] ;
188 -> 189 ;
190 [label="x[1] <= 13.0\ngini = 0.217\nsamples = 251\nvalue = [220, 31]\nclass = setosa"] ;
189 -> 190 ;
191 [label="x[1] <= 11.5\ngini = 0.42\nsamples = 10\nvalue = [7, 3]\nclass = setosa"] ;
190 -> 191 ;
192 [label="x[0] <= 2.5\ngini = 0.346\nsamples = 9\nvalue = [7, 2]\nclass = setosa"] ;
191 -> 192 ;
193 [label="gini = 0.0\nsamples = 1\nvalue = [0, 1]\nclass = versicolor"] ;
192 -> 193 ;
194 [label="x[3] <= 1.5\ngini = 0.219\nsamples = 8\nvalue = [7, 1]\nclass = setosa"] ;
192 -> 194 ;
195 [label="x[1] <= 8.5\ngini = 0.32\nsamples = 5\nvalue = [4, 1]\nclass = setosa"] ;
194 -> 195 ;
196 [label="gini = 0.0\nsamples = 3\nvalue = [3, 0]\nclass = setosa"] ;
195 -> 196 ;
197 [label="x[3] <= 0.5\ngini = 0.5\nsamples = 2\nvalue = [1, 1]\nclass = setosa"] ;
195 -> 197 ;
198 [label="gini = 0.0\nsamples = 1\nvalue = [1, 0]\nclass = setosa"] ;
197 -> 198 ;
199 [label="gini = 0.0\nsamples = 1\nvalue = [0, 1]\nclass = versicolor"] ;
197 -> 199 ;
200 [label="gini = 0.0\nsamples = 3\nvalue = [3, 0]\nclass = setosa"] ;
194 -> 200 ;
201 [label="gini = 0.0\nsamples = 1\nvalue = [0, 1]\nclass = versicolor"] ;
191 -> 201 ;
202 [label="x[1] <= 18.5\ngini = 0.205\nsamples = 241\nvalue = [213, 28]\nclass = setosa"] ;
190 -> 202 ;
203 [label="x[1] <= 16.5\ngini = 0.077\nsamples = 25\nvalue = [24, 1]\nclass = setosa"] ;
202 -> 203 ;
204 [label="x[3] <= 0.5\ngini = 0.165\nsamples = 11\nvalue = [10, 1]\nclass = setosa"] ;
203 -> 204 ;
205 [label="x[0] <= 2.5\ngini = 0.245\nsamples = 7\nvalue = [6, 1]\nclass = setosa"] ;
204 -> 205 ;
206 [label="gini = 0.0\nsamples = 2\nvalue = [2, 0]\nclass = setosa"] ;
205 -> 206 ;
207 [label="gini = 0.32\nsamples = 5\nvalue = [4, 1]\nclass = setosa"] ;
205 -> 207 ;
208 [label="gini = 0.0\nsamples = 4\nvalue = [4, 0]\nclass = setosa"] ;
204 -> 208 ;
209 [label="gini = 0.0\nsamples = 14\nvalue = [14, 0]\nclass = setosa"] ;
203 -> 209 ;
210 [label="x[1] <= 29.35\ngini = 0.219\nsamples = 216\nvalue = [189, 27]\nclass = setosa"] ;
202 -> 210 ;
211 [label="x[0] <= 2.5\ngini = 0.262\nsamples = 116\nvalue = [98, 18]\nclass = setosa"] ;
210 -> 211 ;
212 [label="x[1] <= 20.0\ngini = 0.074\nsamples = 26\nvalue = [25, 1]\nclass = setosa"] ;
211 -> 212 ;
213 [label="x[3] <= 0.5\ngini = 0.375\nsamples = 4\nvalue = [3, 1]\nclass = setosa"] ;
212 -> 213 ;
214 [label="gini = 0.444\nsamples = 3\nvalue = [2, 1]\nclass = setosa"] ;
213 -> 214 ;
215 [label="gini = 0.0\nsamples = 1\nvalue = [1, 0]\nclass = setosa"] ;
213 -> 215 ;
216 [label="gini = 0.0\nsamples = 22\nvalue = [22, 0]\nclass = setosa"] ;
212 -> 216 ;
217 [label="x[1] <= 28.75\ngini = 0.306\nsamples = 90\nvalue = [73, 17]\nclass = setosa"] ;
211 -> 217 ;
218 [label="x[1] <= 27.5\ngini = 0.275\nsamples = 85\nvalue = [71, 14]\nclass = setosa"] ;
217 -> 218 ;
219 [label="x[1] <= 26.5\ngini = 0.307\nsamples = 74\nvalue = [60, 14]\nclass = setosa"] ;
218 -> 219 ;
220 [label="x[3] <= 0.5\ngini = 0.262\nsamples = 71\nvalue = [60, 11]\nclass = setosa"] ;
219 -> 220 ;
221 [label="x[1] <= 24.75\ngini = 0.248\nsamples = 69\nvalue = [59, 10]\nclass = setosa"] ;
220 -> 221 ;
222 [label="x[1] <= 20.5\ngini = 0.211\nsamples = 50\nvalue = [44, 6]\nclass = setosa"] ;
221 -> 222 ;
223 [label="x[1] <= 19.5\ngini = 0.266\nsamples = 19\nvalue = [16, 3]\nclass = setosa"] ;
222 -> 223 ;
224 [label="gini = 0.18\nsamples = 10\nvalue = [9, 1]\nclass = setosa"] ;
223 -> 224 ;
225 [label="gini = 0.346\nsamples = 9\nvalue = [7, 2]\nclass = setosa"] ;
223 -> 225 ;
226 [label="x[1] <= 23.5\ngini = 0.175\nsamples = 31\nvalue = [28, 3]\nclass = setosa"] ;
222 -> 226 ;
227 [label="x[1] <= 22.5\ngini = 0.153\nsamples = 24\nvalue = [22, 2]\nclass = setosa"] ;
226 -> 227 ;
228 [label="x[1] <= 21.5\ngini = 0.159\nsamples = 23\nvalue = [21, 2]\nclass = setosa"] ;
227 -> 228 ;
229 [label="gini = 0.18\nsamples = 10\nvalue = [9, 1]\nclass = setosa"] ;
228 -> 229 ;
230 [label="gini = 0.142\nsamples = 13\nvalue = [12, 1]\nclass = setosa"] ;
228 -> 230 ;
231 [label="gini = 0.0\nsamples = 1\nvalue = [1, 0]\nclass = setosa"] ;
227 -> 231 ;
232 [label="x[1] <= 24.25\ngini = 0.245\nsamples = 7\nvalue = [6, 1]\nclass = setosa"] ;
226 -> 232 ;
233 [label="gini = 0.278\nsamples = 6\nvalue = [5, 1]\nclass = setosa"] ;
232 -> 233 ;
234 [label="gini = 0.0\nsamples = 1\nvalue = [1, 0]\nclass = setosa"] ;
232 -> 234 ;
235 [label="x[1] <= 25.5\ngini = 0.332\nsamples = 19\nvalue = [15, 4]\nclass = setosa"] ;
221 -> 235 ;
236 [label="gini = 0.346\nsamples = 9\nvalue = [7, 2]\nclass = setosa"] ;
235 -> 236 ;
237 [label="gini = 0.32\nsamples = 10\nvalue = [8, 2]\nclass = setosa"] ;
235 -> 237 ;
238 [label="x[3] <= 1.5\ngini = 0.5\nsamples = 2\nvalue = [1, 1]\nclass = setosa"] ;
220 -> 238 ;
239 [label="gini = 0.0\nsamples = 1\nvalue = [0, 1]\nclass = versicolor"] ;
238 -> 239 ;
240 [label="gini = 0.0\nsamples = 1\nvalue = [1, 0]\nclass = setosa"] ;
238 -> 240 ;
241 [label="gini = 0.0\nsamples = 3\nvalue = [0, 3]\nclass = versicolor"] ;
219 -> 241 ;
242 [label="gini = 0.0\nsamples = 11\nvalue = [11, 0]\nclass = setosa"] ;
218 -> 242 ;
243 [label="gini = 0.48\nsamples = 5\nvalue = [2, 3]\nclass = versicolor"] ;
217 -> 243 ;
244 [label="x[3] <= 0.5\ngini = 0.164\nsamples = 100\nvalue = [91, 9]\nclass = setosa"] ;
210 -> 244 ;
245 [label="x[1] <= 30.5\ngini = 0.177\nsamples = 92\nvalue = [83, 9]\nclass = setosa"] ;
244 -> 245 ;
246 [label="x[1] <= 29.85\ngini = 0.164\nsamples = 89\nvalue = [81, 8]\nclass = setosa"] ;
245 -> 246 ;
247 [label="x[0] <= 2.5\ngini = 0.182\nsamples = 79\nvalue = [71, 8]\nclass = setosa"] ;
246 -> 247 ;
248 [label="gini = 0.375\nsamples = 8\nvalue = [6, 2]\nclass = setosa"] ;
247 -> 248 ;
249 [label="gini = 0.155\nsamples = 71\nvalue = [65, 6]\nclass = setosa"] ;
247 -> 249 ;
250 [label="gini = 0.0\nsamples = 10\nvalue = [10, 0]\nclass = setosa"] ;
246 -> 250 ;
251 [label="gini = 0.444\nsamples = 3\nvalue = [2, 1]\nclass = setosa"] ;
245 -> 251 ;
252 [label="gini = 0.0\nsamples = 8\nvalue = [8, 0]\nclass = setosa"] ;
244 -> 252 ;
253 [label="x[0] <= 2.5\ngini = 0.497\nsamples = 13\nvalue = [7, 6]\nclass = setosa"] ;
189 -> 253 ;
254 [label="gini = 0.5\nsamples = 2\nvalue = [1, 1]\nclass = setosa"] ;
253 -> 254 ;
255 [label="gini = 0.496\nsamples = 11\nvalue = [6, 5]\nclass = setosa"] ;
253 -> 255 ;
256 [label="x[1] <= 61.5\ngini = 0.105\nsamples = 90\nvalue = [85, 5]\nclass = setosa"] ;
188 -> 256 ;
257 [label="x[1] <= 44.5\ngini = 0.089\nsamples = 86\nvalue = [82, 4]\nclass = setosa"] ;
256 -> 257 ;
258 [label="x[1] <= 41.5\ngini = 0.124\nsamples = 60\nvalue = [56, 4]\nclass = setosa"] ;
257 -> 258 ;
259 [label="x[1] <= 38.5\ngini = 0.08\nsamples = 48\nvalue = [46, 2]\nclass = setosa"] ;
258 -> 259 ;
260 [label="x[0] <= 2.5\ngini = 0.056\nsamples = 35\nvalue = [34, 1]\nclass = setosa"] ;
259 -> 260 ;
261 [label="x[1] <= 34.5\ngini = 0.142\nsamples = 13\nvalue = [12, 1]\nclass = setosa"] ;
260 -> 261 ;
262 [label="x[1] <= 33.5\ngini = 0.219\nsamples = 8\nvalue = [7, 1]\nclass = setosa"] ;
261 -> 262 ;
263 [label="gini = 0.0\nsamples = 2\nvalue = [2, 0]\nclass = setosa"] ;
262 -> 263 ;
264 [label="gini = 0.278\nsamples = 6\nvalue = [5, 1]\nclass = setosa"] ;
262 -> 264 ;
265 [label="gini = 0.0\nsamples = 5\nvalue = [5, 0]\nclass = setosa"] ;
261 -> 265 ;
266 [label="gini = 0.0\nsamples = 22\nvalue = [22, 0]\nclass = setosa"] ;
260 -> 266 ;
267 [label="x[1] <= 39.5\ngini = 0.142\nsamples = 13\nvalue = [12, 1]\nclass = setosa"] ;
259 -> 267 ;
268 [label="x[0] <= 2.5\ngini = 0.278\nsamples = 6\nvalue = [5, 1]\nclass = setosa"] ;
267 -> 268 ;
269 [label="gini = 0.0\nsamples = 2\nvalue = [2, 0]\nclass = setosa"] ;
268 -> 269 ;
270 [label="x[3] <= 2.5\ngini = 0.375\nsamples = 4\nvalue = [3, 1]\nclass = setosa"] ;
268 -> 270 ;
271 [label="gini = 0.444\nsamples = 3\nvalue = [2, 1]\nclass = setosa"] ;
270 -> 271 ;
272 [label="gini = 0.0\nsamples = 1\nvalue = [1, 0]\nclass = setosa"] ;
270 -> 272 ;
273 [label="gini = 0.0\nsamples = 7\nvalue = [7, 0]\nclass = setosa"] ;
267 -> 273 ;
274 [label="x[3] <= 0.5\ngini = 0.278\nsamples = 12\nvalue = [10, 2]\nclass = setosa"] ;
258 -> 274 ;
275 [label="x[1] <= 43.5\ngini = 0.346\nsamples = 9\nvalue = [7, 2]\nclass = setosa"] ;
274 -> 275 ;
276 [label="x[0] <= 2.5\ngini = 0.278\nsamples = 6\nvalue = [5, 1]\nclass = setosa"] ;
275 -> 276 ;
277 [label="gini = 0.444\nsamples = 3\nvalue = [2, 1]\nclass = setosa"] ;
276 -> 277 ;
278 [label="gini = 0.0\nsamples = 3\nvalue = [3, 0]\nclass = setosa"] ;
276 -> 278 ;
279 [label="x[0] <= 2.5\ngini = 0.444\nsamples = 3\nvalue = [2, 1]\nclass = setosa"] ;
275 -> 279 ;
280 [label="gini = 0.0\nsamples = 1\nvalue = [1, 0]\nclass = setosa"] ;
279 -> 280 ;
281 [label="gini = 0.5\nsamples = 2\nvalue = [1, 1]\nclass = setosa"] ;
279 -> 281 ;
282 [label="gini = 0.0\nsamples = 3\nvalue = [3, 0]\nclass = setosa"] ;
274 -> 282 ;
283 [label="gini = 0.0\nsamples = 26\nvalue = [26, 0]\nclass = setosa"] ;
257 -> 283 ;
284 [label="x[1] <= 66.0\ngini = 0.375\nsamples = 4\nvalue = [3, 1]\nclass = setosa"] ;
256 -> 284 ;
285 [label="gini = 0.0\nsamples = 1\nvalue = [0, 1]\nclass = versicolor"] ;
284 -> 285 ;
286 [label="gini = 0.0\nsamples = 3\nvalue = [3, 0]\nclass = setosa"] ;
284 -> 286 ;
}